{"input_size": 4, "output_size": 9, "weights": [[-0.43432463491658, -0.7895750443039011, -0.12190143176535129, 0.9854685220513744], [-0.29227723189302846, -0.6912722256151851, -0.817494664855636, 0.5516533585747778], [0.07510731603506571, -0.7973799582068948, -0.8771686035573965, -0.24683259528988022], [-0.28856563388350254, 0.8481576693288833, -0.5965542114926106, 0.871620074395105], [-0.24141924472536114, -0.3589071852801058, -0.017299529940716596, 0.5567779979911616], [0.28615981797028756, 0.8250029055365025, 0.4155215691455605, -0.0628290295447862], [-0.7990093092868578, 0.5458182903722781, -0.44258082696172396, -0.3535174515678421], [-0.24355770003941268, -0.25503275639228273, -0.1612647593539036, 0.022232418699243195], [1.0396382706614968, 0.37190239507752554, -0.18569892354785145, 0.681667596250007]], "biases": [-0.2589061406224684, -0.29054275109598326, 0.9775511782710113, -1.1649003266490676, 0.4482907973770409, 0.8063119644410519, 0.4241236588968793, -0.45541925609938905, 0.9282526724190294]}