{
  "weights_ih": [
    [
      -0.46074400461988585,
      -0.9214709586049898,
      0.48378415747637993,
      0.7954791768623393
    ],
    [
      -0.5002312579343289,
      0.17727989489116847,
      -0.8426799604961726,
      -0.6121690728289884
    ],
    [
      0.019299518515373926,
      -0.80575741245637,
      0.039865370490067775,
      -0.13333320561454154
    ],
    [
      -0.7309202583263728,
      -0.5181720858848693,
      -0.17754092868684035,
      0.4879830606048079
    ],
    [
      0.3034228864294106,
      -0.9468103860096984,
      0.3635267486187601,
      0.8120868720382497
    ],
    [
      -0.5941835817406045,
      0.5119455738399965,
      -0.5692954704694035,
      -0.8481593895369484
    ],
    [
      0.6869283173245944,
      0.4641332621890204,
      0.877717970004579,
      0.8804139352458815
    ],
    [
      0.0018183614855382668,
      -0.9669212444763251,
      0.06475431747880633,
      0.6170860305708459
    ]
  ],
  "bias_h": [
    -0.19359621879441424,
    -0.23759137482837867,
    -0.35079288684768306,
    -0.5738847617555629,
    -0.5127168687210006,
    0.6507631266525478,
    0.8280290377868211,
    -0.5256866302877505
  ],
  "weights_ho": [
    [
      0.15335434307724305,
      -0.8790758107834102,
      0.38154600044091924,
      0.5099916229294992,
      0.753904381894237,
      -0.23086122849891133,
      0.08877668006508621,
      -0.3918653765913176
    ],
    [
      -0.3080065350795853,
      -0.527780660042726,
      -0.64202013795744,
      0.422815686834803,
      -0.26846082803932614,
      -0.38606005297165025,
      -0.39379419624536216,
      0.5090616245037547
    ],
    [
      -0.7939361256395312,
      0.627182964837919,
      -0.14225299983494355,
      -0.5848952264783478,
      -0.4258347678158283,
      -0.6040811551423011,
      -0.19354867655016883,
      0.47965418974798846
    ],
    [
      -0.0918640157317494,
      0.49537571260134095,
      -0.1164322411928882,
      -0.7542466082384958,
      0.4783362699746079,
      -0.21837479202088317,
      -0.0540949269547526,
      -0.43690493082346205
    ],
    [
      0.5516506916159396,
      -0.025985950505347688,
      0.9271856189982435,
      -0.33529223513965145,
      -0.020109921339920067,
      -0.41152615306224405,
      0.8446874044593544,
      -0.9750970663585188
    ],
    [
      0.7443764294220976,
      0.26950765594806136,
      -0.9187316779829919,
      0.2780655739485043,
      -0.024206365866447532,
      -0.6246742959248794,
      0.5994104801956677,
      0.8766805767154251
    ]
  ],
  "bias_o": [
    -0.29401256642711604,
    0.5606712480312117,
    0.4745243970597124,
    -0.9706769525286176,
    0.1791967685641671,
    -0.7987874725484556
  ]
}