{"input_size": 8, "output_size": 11, "weights": [[0.30228053652110276, -0.7650252055970572, -0.5782861159916426, 0.5737106913525696, -0.20078765487287842, 0.4356945573727038, 0.670073555509195, -0.18897611698378047], [0.4843265175350513, -0.03925883990427659, -0.5311385656753327, 0.7139946890853217, -0.4894273932826494, -0.7885326286884216, -0.7360103806250164, -0.9814932074637811], [-0.3821136974839505, 0.5595665851378762, 0.6599370023072605, -0.8908152208334519, -0.750089459263836, 0.3577128660647688, 0.40215068721808667, 0.03900337493070738], [0.053098519623997475, -0.012432383376374201, 0.20994673851957613, 0.7028248982693566, 0.6947718309881187, -0.8304327930597066, -0.01834956336980831, -0.8889230536367063], [0.31067129654191983, 0.6430301500815478, -0.6446341224616361, 0.039285239050999454, -0.4614627922477379, -0.22229215827611926, 0.9830314212519864, 0.451046499606085], [0.5705176866560728, 0.9744427424557813, 0.8844353253760606, -0.8630029713071459, -0.4092894483239191, 0.1821908532929719, -0.31489287622315065, -0.9742579076402306], [0.48585398067422303, -0.5585524620427771, 0.8829388190138381, -0.2695880037192837, -0.6750362155059644, -0.5371012318738162, -0.12919893722166464, 0.06443123935204986], [-0.8678953586635738, -0.4421190870052998, 0.9763886089899496, 0.139871633319959, -0.007605991366978038, -0.45426621163508507, 0.8307010921237561, -0.3643926849390413], [0.4251641769386796, -0.19002287537100093, -0.036814837969478376, 0.5842492159037682, -0.3253231866300452, 0.8342209348025571, -0.5810578873607015, 0.17050639426267322], [-0.5258803609686111, 0.47623042256180725, -0.9335294340378106, 0.1823531445180857, 0.3556826919881466, -0.7409023672827504, 0.6963392238358281, -0.5820111371568712], [-0.13983677737202238, -0.20575046448908285, -0.6860284053471377, -0.07831777783916527, -0.8835804468557455, -0.7234599551853627, -0.1153043054956413, 0.05728896028631669]], "biases": [-0.9390396083565691, -0.20540905935703724, -0.7292583783751589, -0.09860635717448507, 0.3448053452202493, 0.7759089208909582, 1.2584267176401949, -1.3126630600927132, -0.8872261817375335, -0.3288312400117128, 0.01904950636537661]}