{"input_size": 7, "output_size": 9, "weights": [[-0.8726370698154904, -0.04438312628524632, -0.11771327154303857, 0.9455656068914513, -0.7501067927951477, -0.3692743764847657, 0.3434437612360428], [-0.5778492679434117, -0.9353141867898604, 0.8470738712671554, -0.757034470019808, 0.8563336254011997, -0.5964670096578246, 0.08729841920835812], [-0.7864425740793248, 0.016172728766092437, -0.18696831646411805, -0.19649592449562525, 0.8830221054661704, -0.23814879740369177, -0.8138452570711525], [0.7647745013458591, -0.9486338796886704, -0.3054876412229669, -0.5320445963292351, 0.22191173981872048, 0.3183738862900274, -0.046257647152194714], [-0.1909747815364593, -0.3472401718865048, 0.10642926442058176, -0.7934210521038757, 0.34973477281571275, -0.0576028685483152, 0.9465074602879153], [0.6185820047212969, 0.9252893398746433, -0.050404972639153556, -0.3870876786319237, -0.013300771379592291, -0.5297167817605628, 0.9224092405456581], [0.8169073085175003, 0.44621615830801686, 0.778019169050923, 0.1589895186768313, -0.3147350650173686, 0.09710916342304965, -0.568096985496134], [0.720844781051333, 0.2797543159663838, 0.3687627665903219, -0.24945669591444508, 0.1924989639607806, -0.831549649127224, 0.7804502403250273], [0.5680910443436049, -0.29395543297029136, 0.8480368114239079, -0.8832553825566258, -0.17280689840685337, -0.41263783090744877, -0.25640966522563]], "biases": [-0.17798364294328994, -0.9643497291553695, 0.4240437745572214, 0.16572425392650003, 0.2922131184377399, -0.0462736721907091, 0.4989017064434069, 0.4121972680576669, -0.33419423962920436]}