{
  "input_size": 5,
  "hidden_size": 8,
  "output_size": 7,
  "weights_ih": [
    [
      0.9950654047288818,
      -0.9232067456691315,
      -0.8728627953547301,
      0.74917739006532,
      -0.3569418798764985
    ],
    [
      0.9575015601228278,
      0.7933616514857773,
      -0.3784679866973315,
      0.4297346652329528,
      -0.6029138424510727
    ],
    [
      0.1119013592477951,
      0.0584149246890624,
      -0.5690571823519057,
      0.25849222830352936,
      0.17449192977710348
    ],
    [
      0.9692515518702169,
      0.4221134414804013,
      0.3350534586523499,
      0.6030285441675132,
      -0.5127650168534112
    ],
    [
      -0.7626796410326007,
      0.04054790364635563,
      -0.31553324831443486,
      0.8756039227329693,
      0.4046754516397819
    ],
    [
      -0.3983554700711758,
      -0.33955387295556516,
      -0.1364268214264155,
      0.9026138214426671,
      0.6320439810469738
    ],
    [
      0.6964993928661798,
      -0.6659032294851661,
      -0.6655316446085486,
      0.6130320678807679,
      0.4238279032525596
    ],
    [
      -0.6278679629563251,
      -0.420737909728083,
      0.06226926138563682,
      0.036361639397769485,
      0.5980697441587648
    ]
  ],
  "bias_h": [
    0.7965778836393451,
    -0.0814518649512066,
    -0.12658584913222892,
    -0.773254864748516,
    -0.8461202123839873,
    -0.9880462517867059,
    -0.07312221826249243,
    -0.6553457435828443
  ],
  "weights_ho": [
    [
      -0.6766067794188868,
      -0.32903579582545306,
      0.3346547337222192,
      0.357516439988085,
      0.6346181778153155,
      -0.6399016859773674,
      0.4281124980783022,
      -0.7958817729780856
    ],
    [
      0.3821197078759151,
      -0.46110710579489633,
      -0.06845177795022162,
      0.15127991360294835,
      -0.17879678519301123,
      0.1616280611254004,
      -0.2595978297244652,
      0.7104707723481485
    ],
    [
      0.34292884582782013,
      -0.37172204640083306,
      0.7649745316959544,
      -0.2287962041019902,
      -0.2106280773684963,
      -0.32182361358930445,
      -0.579296714252783,
      0.8841914957145172
    ],
    [
      0.245225700952868,
      -0.3750843451921715,
      0.010360156754838146,
      -0.059226663938999335,
      -0.8406387844643228,
      -0.1869417106205853,
      -0.5882081635972332,
      0.9967580793567965
    ],
    [
      -0.6386851612923774,
      0.8776857248679193,
      -0.8852540297849012,
      0.8088353316034596,
      -0.1841642583965406,
      0.5746830129823739,
      -0.7860421423620261,
      0.6653765545410497
    ],
    [
      0.10008224875823668,
      0.9207731515443784,
      -0.9318198546283032,
      -0.4684389383013472,
      0.21828914164892632,
      -0.10228218151638369,
      -0.4455489815578384,
      0.2480725812955933
    ],
    [
      0.11320148764535709,
      -0.20765412582772336,
      0.8226302666112049,
      -0.3005926074388088,
      0.06266720111836022,
      0.6239232415637368,
      -0.10048672178784246,
      0.023119788417104603
    ]
  ],
  "bias_o": [
    -0.6028118557986555,
    0.4770809780189238,
    0.2217070517981774,
    0.07378463239686583,
    -0.37445352324068737,
    0.19062937678218517,
    0.7273733887518432
  ]
}